FANN_FLO_2.1
num_layers=3
learning_rate=0.700000
connection_rate=1.000000
network_type=0
learning_momentum=0.000000
training_algorithm=2
train_error_function=1
train_stop_function=0
cascade_output_change_fraction=0.010000
quickprop_decay=-0.000100
quickprop_mu=1.750000
rprop_increase_factor=1.200000
rprop_decrease_factor=0.500000
rprop_delta_min=0.000000
rprop_delta_max=50.000000
rprop_delta_zero=0.100000
cascade_output_stagnation_epochs=12
cascade_candidate_change_fraction=0.010000
cascade_candidate_stagnation_epochs=12
cascade_max_out_epochs=150
cascade_min_out_epochs=50
cascade_max_cand_epochs=150
cascade_min_cand_epochs=50
cascade_num_candidate_groups=2
bit_fail_limit=3.49999994039535520000e-001
cascade_candidate_limit=1.00000000000000000000e+003
cascade_weight_multiplier=4.00000005960464480000e-001
cascade_activation_functions_count=10
cascade_activation_functions=3 5 7 8 10 11 14 15 16 17 
cascade_activation_steepnesses_count=4
cascade_activation_steepnesses=2.50000000000000000000e-001 5.00000000000000000000e-001 7.50000000000000000000e-001 1.00000000000000000000e+000 
layer_sizes=4 17 5 
scale_included=0
neurons (num_inputs, activation_function, activation_steepness)=(0, 0, 0.00000000000000000000e+000) (0, 0, 0.00000000000000000000e+000) (0, 0, 0.00000000000000000000e+000) (0, 0, 0.00000000000000000000e+000) (4, 5, 9.99999977648258210000e-003) (4, 5, 9.99999977648258210000e-003) (4, 5, 9.99999977648258210000e-003) (4, 5, 9.99999977648258210000e-003) (4, 5, 9.99999977648258210000e-003) (4, 5, 9.99999977648258210000e-003) (4, 5, 9.99999977648258210000e-003) (4, 5, 9.99999977648258210000e-003) (4, 5, 9.99999977648258210000e-003) (4, 5, 9.99999977648258210000e-003) (4, 5, 9.99999977648258210000e-003) (4, 5, 9.99999977648258210000e-003) (4, 5, 9.99999977648258210000e-003) (4, 5, 9.99999977648258210000e-003) (4, 5, 9.99999977648258210000e-003) (4, 5, 9.99999977648258210000e-003) (0, 0, 0.00000000000000000000e+000) (17, 5, 9.99999977648258210000e-003) (17, 5, 9.99999977648258210000e-003) (17, 5, 9.99999977648258210000e-003) (17, 5, 9.99999977648258210000e-003) (0, 0, 0.00000000000000000000e+000) 
connections (connected_to_neuron, weight)=(0, -1.72432571411132810000e+002) (1, 7.75336380004882810000e+001) (2, 5.39517272949218750000e+002) (3, -4.04986190795898440000e+001) (0, 4.26340408325195310000e+001) (1, 2.01413226127624510000e+000) (2, -5.13918590545654300000e+000) (3, -1.08251705169677730000e+001) (0, -5.96403083801269530000e+001) (1, -2.17152061462402340000e+001) (2, 1.61129188537597660000e+001) (3, 1.77348766326904300000e+001) (0, -5.96963233947753910000e+001) (1, -7.35642766952514650000e+000) (2, 1.61057415008544920000e+001) (3, 1.71361389160156250000e+001) (0, 4.26651611328125000000e+001) (1, 1.94560599327087400000e+000) (2, -5.10028743743896480000e+000) (3, -1.09517812728881840000e+001) (0, 6.51188659667968750000e+000) (1, 5.92710733413696290000e-001) (2, -4.44538593292236330000e+000) (3, 1.50773057937622070000e+001) (0, 4.25892906188964840000e+001) (1, 4.40506315231323240000e+000) (2, -5.11062717437744140000e+000) (3, -1.18436241149902340000e+001) (0, 5.56369161605834960000e+000) (1, 2.11709747314453120000e+001) (2, -3.65612678527832030000e+001) (3, -4.02912187576293950000e+000) (0, 4.26056785583496090000e+001) (1, 8.80324649810791020000e+000) (2, -3.23282551765441890000e+000) (3, -1.34246625900268550000e+001) (0, -5.19111633300781250000e+002) (1, -1.38778442382812500000e+002) (2, 2.13395095825195310000e+002) (3, 1.55662216186523440000e+002) (0, 3.48358116149902340000e+001) (1, 1.11305822753906250000e+003) (2, -1.45928436279296870000e+002) (3, 1.00948738098144530000e+002) (0, 9.85937690734863280000e+000) (1, -3.99282169342041020000e+000) (2, 4.80163621902465820000e+000) (3, 3.70366172790527340000e+001) (0, -2.03883178710937500000e+002) (1, -2.81614265441894530000e+001) (2, 5.47041870117187500000e+002) (3, -1.89257644653320310000e+002) (0, 6.76057052612304690000e+001) (1, 7.82363464355468750000e+002) (2, 1.49133361816406250000e+003) (3, 1.50000000000000000000e+003) (0, 4.26453094482421880000e+001) (1, 2.01848983764648440000e+000) (2, -5.13040828704833980000e+000) (3, -1.09190502166748050000e+001) (0, -7.69294006347656250000e+002) (1, -4.30321922302246090000e+001) (2, 9.99485855102539060000e+001) (3, 6.46692123413085940000e+001) (4, 1.31049163818359370000e+002) (5, 5.36820297241210940000e+001) (6, -1.51798334121704100000e+001) (7, -1.51109638214111330000e+001) (8, 5.36942863464355470000e+001) (9, 2.90250930786132810000e+001) (10, 5.92363548278808590000e+001) (11, -9.12233123779296880000e+001) (12, -5.35130071640014650000e+000) (13, -1.66862289428710940000e+002) (14, -2.45767440795898440000e+001) (15, -3.01644821166992190000e+001) (16, 3.85294799804687500000e+001) (17, -2.35741853713989260000e+000) (18, 5.36583480834960940000e+001) (19, 2.57136688232421880000e+001) (20, -2.03234043121337890000e+001) (4, -2.19296474456787110000e+001) (5, -1.77851371765136720000e+001) (6, -3.69199752807617190000e+001) (7, -3.70990676879882810000e+001) (8, -1.78589439392089840000e+001) (9, -6.22942466735839840000e+001) (10, -1.71436271667480470000e+001) (11, 2.24386787414550780000e+001) (12, -4.11430702209472660000e+001) (13, 2.18876068115234370000e+002) (14, -3.34616508483886720000e+001) (15, -1.77113461494445800000e+000) (16, -5.38914680480957030000e+001) (17, -7.46384620666503910000e+000) (18, -1.77296104431152340000e+001) (19, -1.89527557373046870000e+002) (20, 8.20814228057861330000e+000) (4, -1.51969318389892580000e+001) (5, -4.17013549804687500000e+001) (6, 7.74063339233398440000e+001) (7, 8.23830184936523440000e+001) (8, -4.23460121154785160000e+001) (9, 2.26708946228027340000e+001) (10, -4.15326766967773440000e+001) (11, -1.04131637573242190000e+002) (12, -5.63895645141601560000e+001) (13, -5.38053703308105470000e+001) (14, 1.35996198654174800000e+001) (15, 2.38344024658203130000e+002) (16, -1.92201061248779300000e+001) (17, 2.10191130638122560000e+000) (18, -4.16699676513671880000e+001) (19, 8.93368911743164060000e+001) (20, 1.04686260223388670000e+001) (4, -4.05665550231933590000e+001) (5, 1.46936779022216800000e+001) (6, 2.72420768737792970000e+001) (7, 3.86290321350097660000e+001) (8, 1.81386604309082030000e+001) (9, 1.85581634521484370000e+002) (10, 8.09373188018798830000e+000) (11, 3.39341926574707030000e+000) (12, 1.79976296424865720000e+000) (13, 1.25067877769470210000e+000) (14, 6.22724246978759770000e+000) (15, 4.30115394592285160000e+001) (16, -7.38904266357421870000e+001) (17, 2.49562320709228520000e+001) (18, 1.48152437210083010000e+001) (19, 9.19292509555816650000e-001) (20, 4.14366188049316410000e+001) 
